[[  0.           0.        ]
 [  0.           0.        ]
 [  0.          -2.78810286]
 [  0.           0.        ]
 [ -1.82644707 -16.82457415]
 [ -1.09105063 -16.41885009]
 [ -1.65730012 -17.79932203]
 [ -0.3461646  -23.32337339]
 [ -0.47876116 -24.1078828 ]
 [  0.         -13.40758021]
 [  0.         -24.40106531]
 [  0.         -12.01498799]
 [  1.28766301  -0.23459444]
 [ -0.35658483  -9.37154569]
 [ -0.47144806 -12.63702579]
 [ -0.87260033 -12.23150193]
 [ -0.63697635 -12.00562055]
 [  0.         -11.62766872]
 [  0.         -12.90695293]
 [  0.         -10.43514917]
 [  0.           0.        ]
 [ -1.54177697 -20.13442498]
 [ -0.6761184  -25.20525053]
 [  0.36677522 -26.38626457]
 [  0.0900324  -29.01660893]
 [  0.03648321 -33.23238744]
 [  0.         -36.05249342]
 [  0.         -32.07906846]
 [  0.         -30.31846288]
 [  0.          -5.69786249]
 [  0.           0.        ]
 [ -0.63537969  -6.8933589 ]
 [ -3.50533048 -26.59970015]
 [  3.90391019 -20.43809116]
 [ -0.21589667  -9.74955134]
 [  0.         -11.74563697]
 [  0.         -15.27307256]
 [  0.          -9.01038368]
 [  0.           0.        ]
 [  0.           0.        ]
 [  0.           0.        ]
 [  3.81854086  -9.70961967]
 [  0.           0.        ]
 [  0.           0.        ]
 [  0.         -19.45318072]
 [  0.           0.        ]
 [  0.           0.        ]
 [  0.         -14.49613614]
 [  1.64316882  -1.06715124]
 [  1.04827952 -12.06005525]
 [  0.         -23.17231486]
 [  3.16130747 -10.83701629]
 [  0.77360337 -22.26809773]
 [ -0.94931232 -20.05429266]
 [  0.         -29.3782043 ]
 [  0.         -26.86298795]
 [  0.           0.        ]
 [  0.           0.        ]
 [  0.           0.        ]
 [  0.           0.        ]
 [  0.           0.        ]
 [  0.           0.        ]
 [  0.           0.        ]
 [  0.           0.        ]
 [  0.           0.        ]
 [  0.           0.        ]
 [  0.           0.        ]
 [  0.           0.        ]
 [  0.           0.        ]
 [  0.           0.        ]
 [  0.           0.        ]
 [  0.           0.        ]
 [  0.           0.        ]
 [ -0.94492491 -12.19782812]
 [  0.         -11.00180375]
 [  0.           0.        ]
 [  0.           0.        ]
 [  0.           0.        ]
 [  0.           0.        ]
 [-12.00635803 -19.66363302]
 [  0.         -13.07288619]
 [-11.18997623 -14.93919645]
 [  0.         -14.45074874]
 [  0.           0.        ]
 [  0.           0.        ]
 [  0.           0.        ]
 [  0.           0.        ]
 [  0.           0.        ]
 [  0.           0.        ]
 [  0.           0.        ]
 [  0.           0.        ]
 [  0.92236535  -0.05909822]
 [  0.           0.        ]
 [  0.           0.        ]
 [  0.           0.        ]
 [  0.           0.        ]
 [  0.           0.        ]
 [  0.           0.        ]
 [  0.           0.        ]
 [  0.           0.        ]]