[[ 0.00000000e+00  0.00000000e+00]
 [ 0.00000000e+00  0.00000000e+00]
 [ 0.00000000e+00 -2.78478387e+00]
 [ 0.00000000e+00  0.00000000e+00]
 [-1.58577544e+00 -1.65761801e+01]
 [-1.05805724e+00 -1.64369584e+01]
 [-2.01456096e+00 -1.71647723e+01]
 [-6.67592996e-02 -2.35075408e+01]
 [-4.18960587e-01 -2.42611133e+01]
 [ 0.00000000e+00 -1.33680178e+01]
 [ 0.00000000e+00 -1.49041375e+01]
 [ 0.00000000e+00 -5.73208033e+00]
 [ 1.04066273e+00 -1.89751599e-01]
 [-4.30047384e-01 -9.51878564e+00]
 [-4.08856925e-01 -1.22891546e+01]
 [-1.21325047e+00 -1.11308182e+01]
 [-6.22704408e-01 -1.19430229e+01]
 [ 0.00000000e+00 -1.19149155e+01]
 [ 0.00000000e+00 -1.28918489e+01]
 [ 0.00000000e+00 -1.45775000e+01]
 [ 0.00000000e+00  0.00000000e+00]
 [-9.48624719e-01 -1.80234718e+01]
 [ 0.00000000e+00 -2.39129674e+01]
 [ 5.08053466e-01 -2.61736276e+01]
 [ 1.02270738e-01 -2.92811611e+01]
 [-1.25019973e-02 -3.32846673e+01]
 [ 0.00000000e+00 -3.60451460e+01]
 [ 0.00000000e+00 -2.82298448e+01]
 [ 0.00000000e+00 -2.95277721e+01]
 [ 0.00000000e+00 -2.44842297e+01]
 [ 2.23690229e+00 -1.00791494e+00]
 [-5.27559122e-01 -6.70160709e+00]
 [-7.30336125e+00 -3.92293418e+01]
 [ 2.23445030e+01 -3.55405117e+01]
 [-2.67615133e-01 -9.40632412e+00]
 [ 0.00000000e+00 -1.45161097e+01]
 [ 0.00000000e+00 -1.52551987e+01]
 [ 0.00000000e+00 -1.58402079e+00]
 [ 0.00000000e+00  0.00000000e+00]
 [ 0.00000000e+00  0.00000000e+00]
 [ 0.00000000e+00  0.00000000e+00]
 [ 7.42026418e-02 -1.81279005e+01]
 [ 0.00000000e+00  0.00000000e+00]
 [ 0.00000000e+00  0.00000000e+00]
 [ 0.00000000e+00 -1.94303401e+01]
 [ 0.00000000e+00  0.00000000e+00]
 [ 0.00000000e+00 -1.84934152e+01]
 [ 0.00000000e+00 -9.78966478e+00]
 [ 0.00000000e+00  0.00000000e+00]
 [-1.87877161e-01 -1.30062023e+01]
 [-5.87332288e-01 -2.31366079e+01]
 [ 3.58265120e+00 -9.26354367e+00]
 [-9.44960018e-01 -2.28446586e+01]
 [ 5.00661344e-01 -1.43873913e+01]
 [ 0.00000000e+00 -2.96452511e+01]
 [ 0.00000000e+00 -1.66465725e+01]
 [ 0.00000000e+00  0.00000000e+00]
 [ 0.00000000e+00  0.00000000e+00]
 [ 0.00000000e+00  0.00000000e+00]
 [ 0.00000000e+00  0.00000000e+00]
 [ 0.00000000e+00  0.00000000e+00]
 [ 0.00000000e+00  0.00000000e+00]
 [ 0.00000000e+00  0.00000000e+00]
 [ 0.00000000e+00  0.00000000e+00]
 [ 0.00000000e+00  0.00000000e+00]
 [ 0.00000000e+00  0.00000000e+00]
 [ 0.00000000e+00  0.00000000e+00]
 [ 0.00000000e+00  0.00000000e+00]
 [ 0.00000000e+00  0.00000000e+00]
 [ 0.00000000e+00  0.00000000e+00]
 [ 0.00000000e+00  0.00000000e+00]
 [ 0.00000000e+00  0.00000000e+00]
 [ 0.00000000e+00  0.00000000e+00]
 [-8.73714502e-01 -1.15937907e+01]
 [ 0.00000000e+00  0.00000000e+00]
 [ 0.00000000e+00  0.00000000e+00]
 [ 0.00000000e+00  0.00000000e+00]
 [ 0.00000000e+00  0.00000000e+00]
 [ 0.00000000e+00  0.00000000e+00]
 [-8.91991077e+00 -1.77886769e+01]
 [ 0.00000000e+00 -1.30576820e+01]
 [ 1.16245034e+00 -4.09083130e+00]
 [ 0.00000000e+00 -1.34199659e+01]
 [ 0.00000000e+00  0.00000000e+00]
 [ 0.00000000e+00  0.00000000e+00]
 [ 0.00000000e+00  0.00000000e+00]
 [ 0.00000000e+00  0.00000000e+00]
 [ 0.00000000e+00  0.00000000e+00]
 [ 0.00000000e+00  0.00000000e+00]
 [ 0.00000000e+00  0.00000000e+00]
 [ 0.00000000e+00  0.00000000e+00]
 [ 0.00000000e+00  0.00000000e+00]
 [ 0.00000000e+00  0.00000000e+00]
 [ 0.00000000e+00  0.00000000e+00]
 [ 0.00000000e+00  0.00000000e+00]
 [ 0.00000000e+00  0.00000000e+00]
 [ 0.00000000e+00  0.00000000e+00]
 [ 0.00000000e+00  0.00000000e+00]
 [ 0.00000000e+00  0.00000000e+00]
 [ 0.00000000e+00  0.00000000e+00]]