[[  0.           0.        ]
 [  0.           0.        ]
 [  0.          -2.7879796 ]
 [  0.           0.        ]
 [ -1.09299838 -15.556803  ]
 [ -1.06826498 -16.41233934]
 [ -2.00138318 -17.12198529]
 [ -0.24881127 -23.35804387]
 [ -0.38026312 -24.40043231]
 [  0.         -22.58593089]
 [  0.         -14.91269731]
 [  0.         -10.28327675]
 [  1.37002491  -0.24968539]
 [ -0.33370134  -9.33189306]
 [ -0.61630193 -12.19351621]
 [ -0.82704882 -11.7319726 ]
 [ -0.68934891 -11.90398483]
 [  0.         -11.30745974]
 [  0.           0.        ]
 [  0.          -8.10071519]
 [  0.           0.        ]
 [ -0.94594823 -19.81693232]
 [ -0.7079642  -25.51955317]
 [  0.15143395 -27.64726931]
 [  0.06414015 -29.19214992]
 [  0.06262384 -33.1436663 ]
 [  0.         -35.56383496]
 [  0.         -34.81247044]
 [  0.         -39.76927133]
 [  0.         -17.37274357]
 [  2.23675988  -1.00761611]
 [ -0.63563296  -7.05754936]
 [ -3.82969201 -32.69184414]
 [  5.78719017 -22.91228784]
 [  1.932954   -10.44878285]
 [  0.         -10.35195305]
 [  0.           0.        ]
 [  0.         -12.71489524]
 [  0.           0.        ]
 [  0.           0.        ]
 [  0.           0.        ]
 [  7.1944674   -2.02175808]
 [  0.           0.        ]
 [  0.           0.        ]
 [  0.           0.        ]
 [  0.           0.        ]
 [  0.         -18.51292457]
 [  0.          -5.80914502]
 [  1.64183332  -1.06638985]
 [ -1.10835723 -15.12179288]
 [ -0.58944824 -23.1565486 ]
 [  3.19216764 -11.02601339]
 [ -3.04978448 -21.23977209]
 [ -0.56402962 -18.15237515]
 [  0.         -24.98239987]
 [  0.         -16.65624032]
 [  0.           0.        ]
 [  0.           0.        ]
 [  0.           0.        ]
 [  0.           0.        ]
 [  0.           0.        ]
 [  0.           0.        ]
 [  0.           0.        ]
 [  0.           0.        ]
 [  0.           0.        ]
 [  0.           0.        ]
 [  0.           0.        ]
 [  0.           0.        ]
 [  0.           0.        ]
 [  0.           0.        ]
 [  0.           0.        ]
 [  0.           0.        ]
 [  0.           0.        ]
 [  0.36091602 -10.76142765]
 [  0.         -11.01535372]
 [  0.           0.        ]
 [  0.           0.        ]
 [  0.           0.        ]
 [  0.           0.        ]
 [-18.91535151 -22.5808336 ]
 [  0.           0.        ]
 [  0.          -9.50558738]
 [  0.         -13.78707597]
 [  0.           0.        ]
 [  0.           0.        ]
 [  0.           0.        ]
 [  0.           0.        ]
 [  0.           0.        ]
 [  0.           0.        ]
 [  0.           0.        ]
 [  0.           0.        ]
 [  0.92237534  -0.05918734]
 [  0.           0.        ]
 [  0.           0.        ]
 [  0.           0.        ]
 [  0.           0.        ]
 [  0.           0.        ]
 [  0.           0.        ]
 [  0.           0.        ]
 [  0.           0.        ]]