[[  0.           0.        ]
 [  0.           0.        ]
 [  0.           0.        ]
 [  0.           0.        ]
 [ -1.35883729 -15.84246237]
 [ -1.07130935 -16.44299348]
 [ -1.97925805 -17.3862949 ]
 [ -0.04829176 -23.54097937]
 [ -0.17323045 -24.77381892]
 [  0.          -4.19945081]
 [  0.          -5.46402706]
 [  0.         -11.60478923]
 [  1.28773571  -0.23476937]
 [ -0.37755553  -9.40279311]
 [ -0.8316692  -13.20069835]
 [ -0.64394736 -11.60424039]
 [ -0.71197041 -11.91419096]
 [  0.         -11.57618356]
 [  0.         -12.88686648]
 [  0.          -8.58029751]
 [  0.           0.        ]
 [ -0.46506757 -15.40782313]
 [ -0.48183965 -23.29775056]
 [  0.61638702 -26.05752147]
 [  0.13968248 -28.67663306]
 [  0.08259731 -33.10880948]
 [  0.         -35.19920458]
 [  0.         -35.47305833]
 [  0.         -32.38701984]
 [  0.         -20.77702909]
 [  2.23861872  -1.00785456]
 [ -0.53857277  -6.67217211]
 [ -3.94817276 -29.64012204]
 [  3.11293175 -18.20776006]
 [ -0.04238099  -9.53653284]
 [  0.         -11.74312315]
 [  0.         -15.24923716]
 [  0.          -9.00837871]
 [  0.           0.        ]
 [  0.           0.        ]
 [  0.           0.        ]
 [  5.99569544  -7.8070144 ]
 [  0.           0.        ]
 [  0.           0.        ]
 [  0.         -19.42308145]
 [  0.           0.        ]
 [  0.         -18.48616446]
 [  0.         -14.67592377]
 [  1.63780395  -1.06360406]
 [ -2.57880014 -18.39022554]
 [ -0.59008795 -23.16214917]
 [ 20.42156829 -14.21530052]
 [ -1.21582033 -21.14241079]
 [ -0.4211593  -16.59478466]
 [  0.         -28.00823034]
 [  0.          -6.49306012]
 [  0.           0.        ]
 [  0.           0.        ]
 [  0.           0.        ]
 [  0.           0.        ]
 [  0.           0.        ]
 [  0.           0.        ]
 [  0.           0.        ]
 [  0.           0.        ]
 [  0.           0.        ]
 [  0.           0.        ]
 [  0.           0.        ]
 [  0.           0.        ]
 [  0.           0.        ]
 [  0.           0.        ]
 [  0.           0.        ]
 [  0.           0.        ]
 [  0.           0.        ]
 [ -0.86645709 -11.43279042]
 [  0.         -10.99945021]
 [  0.           0.        ]
 [  0.           0.        ]
 [  0.           0.        ]
 [  0.           0.        ]
 [ -6.13819566 -13.17306099]
 [  0.         -13.05270925]
 [ -5.10754257  -9.52253537]
 [  0.         -13.76720679]
 [  0.           0.        ]
 [  0.           0.        ]
 [  0.           0.        ]
 [  0.           0.        ]
 [  0.           0.        ]
 [  0.           0.        ]
 [  0.           0.        ]
 [  0.           0.        ]
 [  0.92231373  -0.0593648 ]
 [  0.           0.        ]
 [  0.           0.        ]
 [  0.           0.        ]
 [  0.           0.        ]
 [  0.           0.        ]
 [  0.           0.        ]
 [  0.           0.        ]
 [  0.           0.        ]]