[[ 0.00000000e+00  0.00000000e+00]
 [ 0.00000000e+00  0.00000000e+00]
 [ 0.00000000e+00  0.00000000e+00]
 [ 0.00000000e+00  0.00000000e+00]
 [-1.04650809e+00 -1.48414280e+01]
 [-7.52042321e-01 -1.66602600e+01]
 [-1.71960947e+00 -1.72319093e+01]
 [-1.77272313e-02 -2.35818358e+01]
 [-2.78953740e-01 -2.45423455e+01]
 [ 0.00000000e+00 -1.33866798e+01]
 [ 0.00000000e+00 -1.49250438e+01]
 [ 0.00000000e+00 -1.02845746e+01]
 [ 1.37010549e+00 -2.49704437e-01]
 [-3.34522895e-01 -9.25144384e+00]
 [-5.41622525e-01 -1.31153506e+01]
 [-1.18415869e+00 -1.16692444e+01]
 [-1.21671012e+00 -1.14667843e+01]
 [ 0.00000000e+00 -1.19305831e+01]
 [ 0.00000000e+00 -1.29087052e+01]
 [ 0.00000000e+00 -8.60509665e+00]
 [ 0.00000000e+00  0.00000000e+00]
 [-3.33219723e-01 -1.74629917e+01]
 [-4.89475719e-01 -2.33742101e+01]
 [ 2.66753199e-01 -2.62527183e+01]
 [ 4.59000063e-02 -2.90762092e+01]
 [ 2.59661683e-02 -3.31257633e+01]
 [ 0.00000000e+00 -3.56906626e+01]
 [ 0.00000000e+00 -3.04199902e+01]
 [ 0.00000000e+00 -3.74008106e+01]
 [ 0.00000000e+00 -1.93611433e+01]
 [ 2.23635136e+00 -1.00773430e+00]
 [-5.96832699e-01 -6.79094830e+00]
 [-4.03186636e+00 -2.99975161e+01]
 [ 9.85267973e-01 -1.46001494e+01]
 [ 7.52721688e-01 -1.00710368e+01]
 [ 0.00000000e+00 -1.35025175e+01]
 [ 0.00000000e+00 -1.52752504e+01]
 [ 0.00000000e+00 -1.58964670e+01]
 [ 0.00000000e+00  0.00000000e+00]
 [ 0.00000000e+00  0.00000000e+00]
 [ 0.00000000e+00  0.00000000e+00]
 [ 3.83459542e+00 -3.91426447e+00]
 [ 0.00000000e+00  0.00000000e+00]
 [ 0.00000000e+00  0.00000000e+00]
 [ 0.00000000e+00  0.00000000e+00]
 [ 0.00000000e+00  0.00000000e+00]
 [ 0.00000000e+00 -1.85175291e+01]
 [ 0.00000000e+00 -1.26120868e+01]
 [ 1.63972417e+00 -1.06498476e+00]
 [-7.73523172e-01 -1.51713024e+01]
 [ 0.00000000e+00 -2.31661613e+01]
 [ 3.42926802e+00 -9.71285245e+00]
 [-1.87455449e+00 -2.12778571e+01]
 [-3.83593557e-01 -1.69902124e+01]
 [ 0.00000000e+00 -2.47393234e+01]
 [ 0.00000000e+00 -1.66699432e+01]
 [ 0.00000000e+00  0.00000000e+00]
 [ 0.00000000e+00  0.00000000e+00]
 [ 0.00000000e+00  0.00000000e+00]
 [ 0.00000000e+00  0.00000000e+00]
 [ 0.00000000e+00  0.00000000e+00]
 [ 0.00000000e+00  0.00000000e+00]
 [ 0.00000000e+00  0.00000000e+00]
 [ 0.00000000e+00  0.00000000e+00]
 [ 0.00000000e+00  0.00000000e+00]
 [ 0.00000000e+00  0.00000000e+00]
 [ 0.00000000e+00  0.00000000e+00]
 [ 0.00000000e+00  0.00000000e+00]
 [ 0.00000000e+00  0.00000000e+00]
 [ 0.00000000e+00  0.00000000e+00]
 [ 0.00000000e+00  0.00000000e+00]
 [ 0.00000000e+00  0.00000000e+00]
 [ 0.00000000e+00  0.00000000e+00]
 [ 7.82344980e-01 -1.10985346e+01]
 [ 0.00000000e+00 -1.09963763e+01]
 [ 0.00000000e+00  0.00000000e+00]
 [ 0.00000000e+00  0.00000000e+00]
 [ 0.00000000e+00  0.00000000e+00]
 [ 0.00000000e+00  0.00000000e+00]
 [-1.27454367e+01 -2.00727022e+01]
 [ 0.00000000e+00 -1.30747041e+01]
 [-4.90717763e+00 -9.46144586e+00]
 [ 0.00000000e+00 -1.37633191e+01]
 [ 0.00000000e+00  0.00000000e+00]
 [ 0.00000000e+00  0.00000000e+00]
 [ 0.00000000e+00  0.00000000e+00]
 [ 0.00000000e+00  0.00000000e+00]
 [ 0.00000000e+00  0.00000000e+00]
 [ 0.00000000e+00  0.00000000e+00]
 [ 0.00000000e+00  0.00000000e+00]
 [ 0.00000000e+00  0.00000000e+00]
 [ 9.22437020e-01 -5.92385885e-02]
 [ 0.00000000e+00  0.00000000e+00]
 [ 0.00000000e+00  0.00000000e+00]
 [ 0.00000000e+00  0.00000000e+00]
 [ 0.00000000e+00  0.00000000e+00]
 [ 0.00000000e+00  0.00000000e+00]
 [ 0.00000000e+00  0.00000000e+00]
 [ 0.00000000e+00  0.00000000e+00]
 [ 0.00000000e+00  0.00000000e+00]]