[[ 0.00000000e+00  0.00000000e+00]
 [ 0.00000000e+00  0.00000000e+00]
 [ 0.00000000e+00 -2.79206897e+00]
 [ 0.00000000e+00  0.00000000e+00]
 [-1.41963480e+00 -1.62419727e+01]
 [-1.17785482e+00 -1.65909956e+01]
 [-1.92893211e+00 -1.66441350e+01]
 [-3.81660950e-01 -2.26310491e+01]
 [-5.16241661e-01 -2.38910076e+01]
 [ 0.00000000e+00 -1.79744298e+01]
 [ 0.00000000e+00 -1.96487558e+01]
 [ 0.00000000e+00 -1.51465120e+01]
 [ 6.59638337e-01 -6.07885009e-02]
 [-3.64662637e-01 -9.37620534e+00]
 [-1.02705261e-01 -1.13883035e+01]
 [-9.20466182e-01 -1.22608532e+01]
 [-1.10716718e+00 -1.15598544e+01]
 [ 0.00000000e+00 -1.18777752e+01]
 [ 0.00000000e+00 -1.28990635e+01]
 [ 0.00000000e+00 -8.35422755e+00]
 [ 0.00000000e+00  0.00000000e+00]
 [ 2.61401592e-01 -9.41607212e+00]
 [-1.04859107e+00 -3.18197753e+01]
 [-1.41684334e-01 -2.76529047e+01]
 [-8.98427490e-02 -2.94938234e+01]
 [-3.60483830e-02 -3.32385409e+01]
 [-2.22253119e+00 -4.30269249e+01]
 [ 3.10822637e-01 -3.81378670e+01]
 [ 4.79330440e+00 -7.78607145e-01]
 [ 4.54468557e+00 -2.77227468e+01]
 [ 2.23828267e+00 -1.00743915e+00]
 [-3.55859944e-01 -6.42988750e+00]
 [-3.58665124e+00 -2.69890324e+01]
 [ 8.31573855e+00 -2.44536035e+01]
 [-3.23408018e-01 -9.70437289e+00]
 [ 0.00000000e+00 -1.19824055e+01]
 [ 0.00000000e+00 -1.52079303e+01]
 [ 0.00000000e+00 -1.16754428e+01]
 [ 0.00000000e+00  0.00000000e+00]
 [ 0.00000000e+00  0.00000000e+00]
 [ 0.00000000e+00  0.00000000e+00]
 [-1.13590928e+00 -1.78646192e+01]
 [ 0.00000000e+00  0.00000000e+00]
 [ 0.00000000e+00  0.00000000e+00]
 [ 0.00000000e+00  0.00000000e+00]
 [ 0.00000000e+00  0.00000000e+00]
 [ 0.00000000e+00 -1.84360098e+01]
 [-1.08621330e+01 -2.11620187e+01]
 [ 1.31521972e+00 -5.69888973e-01]
 [-7.86064529e-01 -1.47975609e+01]
 [-5.92647120e-01 -2.31833815e+01]
 [ 2.00263159e+00 -1.07607020e+01]
 [-2.57056714e+00 -2.04298666e+01]
 [-5.68245213e-01 -1.93631817e+01]
 [-1.69710520e+00 -2.92912392e+01]
 [ 0.00000000e+00 -1.32817628e+01]
 [ 0.00000000e+00  0.00000000e+00]
 [ 0.00000000e+00  0.00000000e+00]
 [ 0.00000000e+00  0.00000000e+00]
 [ 0.00000000e+00  0.00000000e+00]
 [ 0.00000000e+00  0.00000000e+00]
 [ 0.00000000e+00  0.00000000e+00]
 [ 0.00000000e+00  0.00000000e+00]
 [ 0.00000000e+00  0.00000000e+00]
 [ 0.00000000e+00  0.00000000e+00]
 [ 0.00000000e+00  0.00000000e+00]
 [ 0.00000000e+00  0.00000000e+00]
 [ 0.00000000e+00  0.00000000e+00]
 [ 0.00000000e+00  0.00000000e+00]
 [ 0.00000000e+00  0.00000000e+00]
 [ 0.00000000e+00  0.00000000e+00]
 [ 0.00000000e+00  0.00000000e+00]
 [ 0.00000000e+00  0.00000000e+00]
 [-1.06512487e+00 -1.33789278e+01]
 [-1.57862917e+00 -1.85231107e+01]
 [ 0.00000000e+00  0.00000000e+00]
 [ 0.00000000e+00  0.00000000e+00]
 [ 0.00000000e+00  0.00000000e+00]
 [ 0.00000000e+00  0.00000000e+00]
 [-9.33748898e+00 -1.70746701e+01]
 [ 0.00000000e+00 -1.30168947e+01]
 [ 0.00000000e+00 -1.13244567e+01]
 [ 0.00000000e+00 -1.37748075e+01]
 [ 0.00000000e+00  0.00000000e+00]
 [ 0.00000000e+00  0.00000000e+00]
 [ 0.00000000e+00  0.00000000e+00]
 [ 0.00000000e+00  0.00000000e+00]
 [ 0.00000000e+00  0.00000000e+00]
 [ 0.00000000e+00  0.00000000e+00]
 [ 0.00000000e+00  0.00000000e+00]
 [ 0.00000000e+00  0.00000000e+00]
 [ 9.22314649e-01 -5.92008437e-02]
 [ 0.00000000e+00  0.00000000e+00]
 [ 0.00000000e+00  0.00000000e+00]
 [ 0.00000000e+00  0.00000000e+00]
 [ 0.00000000e+00  0.00000000e+00]
 [ 0.00000000e+00  0.00000000e+00]
 [ 0.00000000e+00  0.00000000e+00]
 [ 0.00000000e+00  0.00000000e+00]
 [ 0.00000000e+00  0.00000000e+00]]