[[  0.           0.        ]
 [  0.           0.        ]
 [  0.          -3.03867634]
 [  0.           0.        ]
 [ -1.244659   -15.77783332]
 [ -1.17779274 -16.55595325]
 [ -1.76918456 -16.46663984]
 [ -0.42815063 -22.61356521]
 [ -0.42741463 -24.14082711]
 [  0.         -17.97312942]
 [  0.         -17.84204371]
 [ -0.98069928 -17.28617642]
 [  0.65986388  -0.05937608]
 [ -0.39728637  -9.46974144]
 [ -0.23785625 -12.28442646]
 [ -0.9483793  -11.12194653]
 [ -0.89536266 -11.68093219]
 [  0.         -11.79599333]
 [  0.         -12.90825408]
 [  0.          -8.35362207]
 [  0.           0.        ]
 [  0.26769925  -8.65092918]
 [ -0.567342   -29.42623992]
 [ -0.38941875 -29.62805962]
 [ -0.14543411 -29.79535955]
 [  0.07864053 -32.91479609]
 [ -2.76856902 -44.53064509]
 [ -2.26468919 -43.74696016]
 [  0.83147802 -35.8965479 ]
 [ -4.43119144 -22.53495494]
 [  2.23708424  -1.00781095]
 [ -0.59548353  -6.86630706]
 [-23.70254786 -38.06299673]
 [  4.48759409 -19.07264268]
 [  0.61618424  -9.34372963]
 [  0.         -11.76873593]
 [  0.         -15.2745    ]
 [  0.          -5.64963501]
 [  0.           0.        ]
 [  0.           0.        ]
 [  0.           0.        ]
 [ -0.91247544 -17.28098442]
 [  0.           0.        ]
 [  0.           0.        ]
 [  8.01299823  -4.23949691]
 [  0.           0.        ]
 [  0.         -18.51650972]
 [ -4.79871682 -19.05277811]
 [  1.31144186  -0.56751633]
 [ -0.13311484 -12.19048129]
 [ -0.59200883 -23.17968647]
 [  0.13768952  -9.31998959]
 [ -4.02456114 -19.83968726]
 [ -0.22425996 -17.27564417]
 [  0.08696261 -24.92945809]
 [  0.          -6.40335771]
 [  0.           0.        ]
 [  0.           0.        ]
 [  0.           0.        ]
 [  0.           0.        ]
 [  0.           0.        ]
 [  0.           0.        ]
 [  0.           0.        ]
 [  0.           0.        ]
 [  0.           0.        ]
 [  0.           0.        ]
 [  0.           0.        ]
 [  0.           0.        ]
 [  0.           0.        ]
 [  0.           0.        ]
 [  0.           0.        ]
 [  0.           0.        ]
 [  0.           0.        ]
 [ -1.02968049 -12.98708629]
 [  0.           0.        ]
 [  0.           0.        ]
 [  0.           0.        ]
 [  0.           0.        ]
 [  0.           0.        ]
 [ -2.25167938  -9.55138471]
 [  0.         -13.07415145]
 [ -4.72707433  -9.34894446]
 [  0.         -13.74539166]
 [  0.           0.        ]
 [  0.           0.        ]
 [  0.           0.        ]
 [  0.           0.        ]
 [  0.           0.        ]
 [  0.           0.        ]
 [  0.           0.        ]
 [  0.           0.        ]
 [  0.           0.        ]
 [  0.           0.        ]
 [  0.           0.        ]
 [  0.           0.        ]
 [  0.           0.        ]
 [  0.           0.        ]
 [  0.           0.        ]
 [  0.           0.        ]
 [  0.           0.        ]]