[[ 0.00000000e+00  0.00000000e+00]
 [ 0.00000000e+00  0.00000000e+00]
 [ 0.00000000e+00 -2.78224518e+00]
 [ 0.00000000e+00  0.00000000e+00]
 [-1.70412952e+00 -1.65701763e+01]
 [-1.17191587e+00 -1.65855677e+01]
 [-1.69266881e+00 -1.66187106e+01]
 [-3.21100976e-01 -2.28799304e+01]
 [-4.70975819e-01 -2.40406979e+01]
 [ 0.00000000e+00 -4.21187657e+00]
 [ 0.00000000e+00 -1.82320557e+01]
 [-5.01625977e-01 -1.13472588e+01]
 [ 5.33338013e-01 -4.87320113e-02]
 [-4.30523158e-01 -9.65981831e+00]
 [-3.75034432e-01 -1.26051001e+01]
 [-7.97619769e-01 -1.09371122e+01]
 [-9.64611665e-01 -1.16614698e+01]
 [ 0.00000000e+00 -1.17573215e+01]
 [ 0.00000000e+00 -1.28818042e+01]
 [ 0.00000000e+00 -1.51312226e+01]
 [ 0.00000000e+00  0.00000000e+00]
 [ 3.95396154e-01 -6.33658745e+00]
 [-6.51091017e-01 -2.91096376e+01]
 [-6.27852743e-02 -2.72460509e+01]
 [-3.55169973e-02 -2.92010345e+01]
 [ 2.02871122e-02 -3.31418714e+01]
 [ 1.44642790e-01 -3.63715269e+01]
 [-2.16548625e+00 -4.31139497e+01]
 [-2.67691619e+00 -4.68091343e+01]
 [-1.60652867e+01 -3.28153212e+01]
 [ 0.00000000e+00  0.00000000e+00]
 [-3.63155436e-01 -6.50398479e+00]
 [-4.57166410e+00 -3.37181483e+01]
 [ 3.01552215e+01 -4.34610521e+01]
 [ 3.37544939e+00 -1.08619842e+01]
 [ 0.00000000e+00 -1.20781950e+01]
 [ 0.00000000e+00  0.00000000e+00]
 [ 0.00000000e+00 -9.14397175e+00]
 [ 0.00000000e+00  0.00000000e+00]
 [ 0.00000000e+00  0.00000000e+00]
 [ 0.00000000e+00  0.00000000e+00]
 [-3.24147638e-01 -1.93191110e+01]
 [ 0.00000000e+00  0.00000000e+00]
 [ 0.00000000e+00  0.00000000e+00]
 [ 8.01943574e+00 -4.24429040e+00]
 [ 0.00000000e+00  0.00000000e+00]
 [ 0.00000000e+00 -1.85464961e+01]
 [-9.28384333e+00 -2.26170380e+01]
 [ 1.29457857e+00 -5.58410940e-01]
 [-1.49775094e+00 -1.77248577e+01]
 [ 0.00000000e+00 -2.32097151e+01]
 [ 3.21628602e+01 -1.78869981e+01]
 [-2.31309580e+00 -2.11388419e+01]
 [ 7.61737937e-02 -1.72691410e+01]
 [-2.32726975e+00 -3.05248826e+01]
 [ 0.00000000e+00 -1.67002093e+01]
 [ 0.00000000e+00  0.00000000e+00]
 [ 0.00000000e+00  0.00000000e+00]
 [ 0.00000000e+00  0.00000000e+00]
 [ 0.00000000e+00  0.00000000e+00]
 [ 0.00000000e+00  0.00000000e+00]
 [ 0.00000000e+00  0.00000000e+00]
 [ 0.00000000e+00  0.00000000e+00]
 [ 0.00000000e+00  0.00000000e+00]
 [ 0.00000000e+00  0.00000000e+00]
 [ 0.00000000e+00  0.00000000e+00]
 [ 0.00000000e+00  0.00000000e+00]
 [ 0.00000000e+00  0.00000000e+00]
 [ 0.00000000e+00  0.00000000e+00]
 [ 0.00000000e+00  0.00000000e+00]
 [ 0.00000000e+00  0.00000000e+00]
 [ 0.00000000e+00  0.00000000e+00]
 [ 0.00000000e+00  0.00000000e+00]
 [-1.19128818e+00 -1.34050905e+01]
 [-1.39604385e+00 -1.76395469e+01]
 [ 0.00000000e+00  0.00000000e+00]
 [ 0.00000000e+00  0.00000000e+00]
 [ 0.00000000e+00  0.00000000e+00]
 [ 0.00000000e+00  0.00000000e+00]
 [-9.29894008e+00 -1.67829859e+01]
 [ 0.00000000e+00  0.00000000e+00]
 [-1.13403697e+01 -1.51590650e+01]
 [ 0.00000000e+00 -1.37887452e+01]
 [ 0.00000000e+00  0.00000000e+00]
 [ 0.00000000e+00  0.00000000e+00]
 [ 0.00000000e+00  0.00000000e+00]
 [ 0.00000000e+00  0.00000000e+00]
 [ 0.00000000e+00  0.00000000e+00]
 [ 0.00000000e+00  0.00000000e+00]
 [ 0.00000000e+00  0.00000000e+00]
 [ 0.00000000e+00  0.00000000e+00]
 [ 9.22262181e-01 -5.94016526e-02]
 [ 0.00000000e+00  0.00000000e+00]
 [ 0.00000000e+00  0.00000000e+00]
 [ 0.00000000e+00  0.00000000e+00]
 [ 0.00000000e+00  0.00000000e+00]
 [ 0.00000000e+00  0.00000000e+00]
 [ 0.00000000e+00  0.00000000e+00]
 [ 0.00000000e+00  0.00000000e+00]
 [ 0.00000000e+00  0.00000000e+00]]