[[  0.           0.        ]
 [  0.           0.        ]
 [  0.          -2.54143974]
 [  0.           0.        ]
 [ -1.50741342 -16.0403767 ]
 [ -1.17433334 -16.58415314]
 [ -1.81048501 -16.41591623]
 [ -0.36106098 -22.85632082]
 [ -0.48193893 -24.15959759]
 [  0.         -22.50193799]
 [  0.         -24.4654905 ]
 [ -0.82479026 -15.35220524]
 [  0.70194449  -0.06410427]
 [ -0.31875281  -9.18998655]
 [ -0.34844906 -12.10270332]
 [ -0.59803604 -10.72939354]
 [ -1.07370864 -11.56283046]
 [  0.         -11.7550912 ]
 [  0.         -12.8578246 ]
 [  0.          -6.09143849]
 [  0.           0.        ]
 [ -1.18078196 -27.50422781]
 [ -0.7512192  -28.73668255]
 [  0.16924536 -26.55446338]
 [  0.31004549 -28.00304716]
 [  0.07787195 -32.94009629]
 [ -3.01665663 -45.27259563]
 [ -4.01887095 -49.28878557]
 [ -4.39458818 -52.08615209]
 [ -7.35060767 -27.76248689]
 [  2.23675007  -1.00878095]
 [ -0.11287279  -6.03467064]
 [ -4.21634029 -32.20650939]
 [  6.69943652 -22.58968907]
 [  3.8808828  -11.15620914]
 [  0.         -12.39501885]
 [  0.         -15.29298396]
 [  0.          -8.93461611]
 [  0.           0.        ]
 [  0.           0.        ]
 [  0.           0.        ]
 [ -0.83928049 -17.60625242]
 [  0.           0.        ]
 [  0.           0.        ]
 [  8.02995355  -4.25016911]
 [  0.           0.        ]
 [  0.           0.        ]
 [ -9.23173152 -21.67785037]
 [  0.           0.        ]
 [ -1.95577967 -15.0893065 ]
 [ -0.59158068 -23.1764658 ]
 [  2.63814475 -10.21570389]
 [ -2.63192274 -20.90395914]
 [ -0.30815243 -17.29568035]
 [ -4.33983037 -33.79846813]
 [  0.         -13.23861986]
 [  0.           0.        ]
 [  0.           0.        ]
 [  0.           0.        ]
 [  0.           0.        ]
 [  0.           0.        ]
 [  0.           0.        ]
 [  0.           0.        ]
 [  0.           0.        ]
 [  0.           0.        ]
 [  0.           0.        ]
 [  0.           0.        ]
 [  0.           0.        ]
 [  0.           0.        ]
 [  0.           0.        ]
 [  0.           0.        ]
 [  0.           0.        ]
 [  0.           0.        ]
 [ -1.05421649 -13.22135681]
 [ -0.87782179 -15.1319507 ]
 [  0.           0.        ]
 [  0.           0.        ]
 [  0.           0.        ]
 [  0.           0.        ]
 [ -7.48319344 -14.86367892]
 [  0.         -13.08994529]
 [ -7.09747157 -11.28961416]
 [  0.           0.        ]
 [  0.           0.        ]
 [  0.           0.        ]
 [  0.           0.        ]
 [  0.           0.        ]
 [  0.           0.        ]
 [  0.           0.        ]
 [  0.           0.        ]
 [  0.           0.        ]
 [  0.92235471  -0.05922812]
 [  0.           0.        ]
 [  0.           0.        ]
 [  0.           0.        ]
 [  0.           0.        ]
 [  0.           0.        ]
 [  0.           0.        ]
 [  0.           0.        ]
 [  0.           0.        ]]