[[ 0.00000000e+00  0.00000000e+00]
 [ 0.00000000e+00  0.00000000e+00]
 [ 0.00000000e+00 -2.78913173e+00]
 [ 0.00000000e+00  0.00000000e+00]
 [-4.92219822e-01 -1.43456511e+01]
 [-7.59649275e-01 -1.66620089e+01]
 [-1.75263566e+00 -1.71797386e+01]
 [-1.18485026e-01 -2.34025186e+01]
 [-4.34694643e-01 -2.42628642e+01]
 [ 0.00000000e+00  0.00000000e+00]
 [ 0.00000000e+00 -1.49487596e+01]
 [ 0.00000000e+00 -1.15823790e+01]
 [ 1.13612759e+00 -2.07031670e-01]
 [-5.12062607e-01 -9.84789112e+00]
 [-3.43304695e-01 -1.21208047e+01]
 [-6.24113138e-01 -1.15422493e+01]
 [-1.00095367e+00 -1.16784969e+01]
 [ 0.00000000e+00 -1.13126900e+01]
 [ 0.00000000e+00  0.00000000e+00]
 [ 0.00000000e+00 -1.04126632e+01]
 [ 0.00000000e+00  0.00000000e+00]
 [-8.57583626e-01 -1.61346456e+01]
 [-5.50446689e-01 -2.39723618e+01]
 [ 1.31701711e-01 -2.68622064e+01]
 [ 1.33800002e-01 -2.92597562e+01]
 [ 2.10718889e-02 -3.32298743e+01]
 [ 0.00000000e+00 -3.61659152e+01]
 [ 0.00000000e+00 -3.04276525e+01]
 [ 0.00000000e+00 -2.50481422e+01]
 [ 0.00000000e+00 -2.07254162e+01]
 [ 2.23634617e+00 -1.00740257e+00]
 [-6.50719214e-01 -6.96646596e+00]
 [-2.30854830e+01 -3.80157917e+01]
 [ 5.40600112e+00 -2.09212708e+01]
 [-1.26638524e+00 -8.65193040e+00]
 [ 0.00000000e+00 -1.13975611e+01]
 [ 0.00000000e+00 -1.52783183e+01]
 [ 0.00000000e+00 -8.99105305e+00]
 [ 0.00000000e+00  0.00000000e+00]
 [ 0.00000000e+00  0.00000000e+00]
 [ 0.00000000e+00  0.00000000e+00]
 [ 3.13207159e+00 -7.76479029e+00]
 [ 0.00000000e+00  0.00000000e+00]
 [ 0.00000000e+00  0.00000000e+00]
 [ 0.00000000e+00 -1.94598495e+01]
 [ 0.00000000e+00  0.00000000e+00]
 [ 0.00000000e+00 -1.85213773e+01]
 [ 0.00000000e+00 -1.69993016e+01]
 [ 1.63943431e+00 -1.06456873e+00]
 [-6.87184500e-01 -1.31729046e+01]
 [-5.92082777e-01 -2.31818757e+01]
 [ 3.52980538e+00 -9.44888687e+00]
 [-3.39211102e-01 -2.27632009e+01]
 [-1.65954331e-01 -1.84548075e+01]
 [ 0.00000000e+00 -2.87244339e+01]
 [ 0.00000000e+00 -2.68721804e+01]
 [ 0.00000000e+00  0.00000000e+00]
 [ 0.00000000e+00  0.00000000e+00]
 [ 0.00000000e+00  0.00000000e+00]
 [ 0.00000000e+00  0.00000000e+00]
 [ 0.00000000e+00  0.00000000e+00]
 [ 0.00000000e+00  0.00000000e+00]
 [ 0.00000000e+00  0.00000000e+00]
 [ 0.00000000e+00  0.00000000e+00]
 [ 0.00000000e+00  0.00000000e+00]
 [ 0.00000000e+00  0.00000000e+00]
 [ 0.00000000e+00  0.00000000e+00]
 [ 0.00000000e+00  0.00000000e+00]
 [ 0.00000000e+00  0.00000000e+00]
 [ 0.00000000e+00  0.00000000e+00]
 [ 0.00000000e+00  0.00000000e+00]
 [ 0.00000000e+00  0.00000000e+00]
 [ 0.00000000e+00  0.00000000e+00]
 [-8.79660698e-01 -1.16750536e+01]
 [ 0.00000000e+00 -1.23482847e+01]
 [ 0.00000000e+00  0.00000000e+00]
 [ 0.00000000e+00  0.00000000e+00]
 [ 0.00000000e+00  0.00000000e+00]
 [ 0.00000000e+00  0.00000000e+00]
 [-1.00545798e+01 -1.74957990e+01]
 [ 0.00000000e+00 -1.30775189e+01]
 [-4.81367461e+00 -9.42511723e+00]
 [ 0.00000000e+00 -1.34539358e+01]
 [ 0.00000000e+00  0.00000000e+00]
 [ 0.00000000e+00  0.00000000e+00]
 [ 0.00000000e+00  0.00000000e+00]
 [ 0.00000000e+00  0.00000000e+00]
 [ 0.00000000e+00  0.00000000e+00]
 [ 0.00000000e+00  0.00000000e+00]
 [ 0.00000000e+00  0.00000000e+00]
 [ 0.00000000e+00  0.00000000e+00]
 [ 9.22355112e-01 -5.91220377e-02]
 [ 0.00000000e+00  0.00000000e+00]
 [ 0.00000000e+00  0.00000000e+00]
 [ 0.00000000e+00  0.00000000e+00]
 [ 0.00000000e+00  0.00000000e+00]
 [ 0.00000000e+00  0.00000000e+00]
 [ 0.00000000e+00  0.00000000e+00]
 [ 0.00000000e+00  0.00000000e+00]
 [ 0.00000000e+00  0.00000000e+00]]