[[ 0.00000000e+00  0.00000000e+00]
 [ 0.00000000e+00  0.00000000e+00]
 [ 0.00000000e+00 -2.78407544e+00]
 [ 0.00000000e+00  0.00000000e+00]
 [-9.86927001e-01 -1.48867658e+01]
 [-7.35209048e-01 -1.66747953e+01]
 [-1.76944387e+00 -1.71070474e+01]
 [-6.12179365e-02 -2.34757602e+01]
 [-4.18972303e-01 -2.42969743e+01]
 [ 0.00000000e+00 -1.33742872e+01]
 [ 0.00000000e+00 -2.43661260e+01]
 [ 0.00000000e+00 -5.41992518e+00]
 [ 1.28778901e+00 -2.34579222e-01]
 [-2.00225759e-01 -8.96054393e+00]
 [-4.20536866e-01 -1.14847349e+01]
 [-6.12116644e-01 -1.16957609e+01]
 [-1.15601290e+00 -1.14743529e+01]
 [ 0.00000000e+00 -1.15988180e+01]
 [ 0.00000000e+00 -1.28884394e+01]
 [ 0.00000000e+00 -1.40910803e+01]
 [ 0.00000000e+00  0.00000000e+00]
 [-9.51103998e-01 -1.80425278e+01]
 [-5.85249389e-01 -2.55665266e+01]
 [ 2.74170966e-01 -2.59446142e+01]
 [ 3.47134514e-02 -2.91318679e+01]
 [ 1.10456789e-02 -3.33214408e+01]
 [ 0.00000000e+00 -3.62734127e+01]
 [ 0.00000000e+00 -3.19379790e+01]
 [ 0.00000000e+00 -3.23072513e+01]
 [ 0.00000000e+00 -1.64318940e+01]
 [ 2.23865343e+00 -1.00840269e+00]
 [-5.55803961e-01 -6.76199236e+00]
 [-5.37893887e+00 -4.23055995e+01]
 [ 4.94189444e+00 -2.28249568e+01]
 [-1.03087936e+00 -8.69005950e+00]
 [ 0.00000000e+00 -1.03508214e+01]
 [ 0.00000000e+00 -1.52511570e+01]
 [ 0.00000000e+00 -5.57169943e+00]
 [ 0.00000000e+00  0.00000000e+00]
 [ 0.00000000e+00  0.00000000e+00]
 [ 0.00000000e+00  0.00000000e+00]
 [ 1.64890990e-01 -1.78526484e+01]
 [ 0.00000000e+00  0.00000000e+00]
 [ 0.00000000e+00  0.00000000e+00]
 [ 0.00000000e+00 -1.94253196e+01]
 [ 0.00000000e+00  0.00000000e+00]
 [ 0.00000000e+00  0.00000000e+00]
 [ 0.00000000e+00 -8.00466904e+00]
 [ 0.00000000e+00  0.00000000e+00]
 [-6.74443991e-01 -1.46799850e+01]
 [-5.89618411e-01 -2.31582096e+01]
 [ 3.97228055e+00 -1.09373536e+01]
 [ 3.20072883e-01 -2.21904852e+01]
 [ 1.11086305e+00 -1.02542153e+01]
 [ 0.00000000e+00 -2.80077974e+01]
 [ 0.00000000e+00 -1.66545040e+01]
 [ 0.00000000e+00  0.00000000e+00]
 [ 0.00000000e+00  0.00000000e+00]
 [ 0.00000000e+00  0.00000000e+00]
 [ 0.00000000e+00  0.00000000e+00]
 [ 0.00000000e+00  0.00000000e+00]
 [ 0.00000000e+00  0.00000000e+00]
 [ 0.00000000e+00  0.00000000e+00]
 [ 0.00000000e+00  0.00000000e+00]
 [ 0.00000000e+00  0.00000000e+00]
 [ 0.00000000e+00  0.00000000e+00]
 [ 0.00000000e+00  0.00000000e+00]
 [ 0.00000000e+00  0.00000000e+00]
 [ 0.00000000e+00  0.00000000e+00]
 [ 0.00000000e+00  0.00000000e+00]
 [ 0.00000000e+00  0.00000000e+00]
 [ 0.00000000e+00  0.00000000e+00]
 [ 0.00000000e+00  0.00000000e+00]
 [-8.79556113e-01 -1.16740211e+01]
 [ 0.00000000e+00 -1.03285749e+01]
 [ 0.00000000e+00  0.00000000e+00]
 [ 0.00000000e+00  0.00000000e+00]
 [ 0.00000000e+00  0.00000000e+00]
 [ 0.00000000e+00  0.00000000e+00]
 [-1.44280681e+01 -2.10626172e+01]
 [ 0.00000000e+00  0.00000000e+00]
 [ 1.36590341e+00 -3.97437869e+00]
 [ 0.00000000e+00 -1.37683033e+01]
 [ 0.00000000e+00  0.00000000e+00]
 [ 0.00000000e+00  0.00000000e+00]
 [ 0.00000000e+00  0.00000000e+00]
 [ 0.00000000e+00  0.00000000e+00]
 [ 0.00000000e+00  0.00000000e+00]
 [ 0.00000000e+00  0.00000000e+00]
 [ 0.00000000e+00  0.00000000e+00]
 [ 0.00000000e+00  0.00000000e+00]
 [ 0.00000000e+00  0.00000000e+00]
 [ 0.00000000e+00  0.00000000e+00]
 [ 0.00000000e+00  0.00000000e+00]
 [ 0.00000000e+00  0.00000000e+00]
 [ 0.00000000e+00  0.00000000e+00]
 [ 0.00000000e+00  0.00000000e+00]
 [ 0.00000000e+00  0.00000000e+00]
 [ 0.00000000e+00  0.00000000e+00]
 [ 0.00000000e+00  0.00000000e+00]]