[[ 0.00000000e+00  0.00000000e+00]
 [ 0.00000000e+00  0.00000000e+00]
 [ 0.00000000e+00 -2.78388027e+00]
 [ 0.00000000e+00  0.00000000e+00]
 [-1.08958243e+00 -1.49275617e+01]
 [-7.56789936e-01 -1.66373788e+01]
 [-1.42533374e+00 -1.77902107e+01]
 [-3.88692075e-02 -2.34575273e+01]
 [-3.21553701e-02 -2.49160637e+01]
 [ 0.00000000e+00 -1.33932224e+01]
 [ 0.00000000e+00 -5.46404189e+00]
 [ 0.00000000e+00 -1.22233970e+01]
 [ 1.30646479e+00 -2.38013405e-01]
 [-3.93957670e-01 -9.43694593e+00]
 [-4.18494499e-01 -1.23263615e+01]
 [-8.34568813e-01 -1.22561417e+01]
 [-9.53912314e-01 -1.16691261e+01]
 [ 0.00000000e+00 -1.16152162e+01]
 [ 0.00000000e+00 -1.28866948e+01]
 [ 0.00000000e+00 -1.04336978e+01]
 [ 0.00000000e+00  0.00000000e+00]
 [-2.79656834e+00 -2.86864608e+01]
 [-6.87490274e-01 -2.48617405e+01]
 [ 1.64605816e-01 -2.70485084e+01]
 [ 8.06273410e-02 -2.87745742e+01]
 [ 4.25073103e-02 -3.30798307e+01]
 [ 0.00000000e+00 -3.56265754e+01]
 [ 0.00000000e+00 -3.92945918e+01]
 [ 0.00000000e+00 -3.23883845e+01]
 [ 0.00000000e+00 -1.27287080e+01]
 [ 0.00000000e+00  0.00000000e+00]
 [-5.32173096e-01 -6.79664902e+00]
 [-3.58441897e+00 -2.69748792e+01]
 [ 1.94408830e+01 -3.37094516e+01]
 [-9.81957312e-01 -8.56373001e+00]
 [ 0.00000000e+00 -1.17440154e+01]
 [ 0.00000000e+00  0.00000000e+00]
 [ 0.00000000e+00 -9.00919031e+00]
 [ 0.00000000e+00  0.00000000e+00]
 [ 0.00000000e+00  0.00000000e+00]
 [ 0.00000000e+00  0.00000000e+00]
 [ 2.58605411e+00 -9.29115759e+00]
 [ 0.00000000e+00  0.00000000e+00]
 [ 0.00000000e+00  0.00000000e+00]
 [ 0.00000000e+00 -1.94224610e+01]
 [ 0.00000000e+00  0.00000000e+00]
 [ 0.00000000e+00 -1.84858410e+01]
 [ 0.00000000e+00 -9.79189753e+00]
 [ 1.64332101e+00 -1.06743287e+00]
 [-4.96796521e-01 -1.51152369e+01]
 [-5.91031847e-01 -2.31703926e+01]
 [ 1.64381988e+00 -1.03453422e+01]
 [-2.20766445e+00 -2.12283663e+01]
 [-1.07453859e+00 -2.17664274e+01]
 [ 0.00000000e+00 -2.86015829e+01]
 [ 0.00000000e+00 -6.49306549e+00]
 [ 0.00000000e+00  0.00000000e+00]
 [ 0.00000000e+00  0.00000000e+00]
 [ 0.00000000e+00  0.00000000e+00]
 [ 0.00000000e+00  0.00000000e+00]
 [ 0.00000000e+00  0.00000000e+00]
 [ 0.00000000e+00  0.00000000e+00]
 [ 0.00000000e+00  0.00000000e+00]
 [ 0.00000000e+00  0.00000000e+00]
 [ 0.00000000e+00  0.00000000e+00]
 [ 0.00000000e+00  0.00000000e+00]
 [ 0.00000000e+00  0.00000000e+00]
 [ 0.00000000e+00  0.00000000e+00]
 [ 0.00000000e+00  0.00000000e+00]
 [ 0.00000000e+00  0.00000000e+00]
 [ 0.00000000e+00  0.00000000e+00]
 [ 0.00000000e+00  0.00000000e+00]
 [ 0.00000000e+00  0.00000000e+00]
 [-9.75302343e-01 -1.24629819e+01]
 [ 0.00000000e+00 -1.10003141e+01]
 [ 0.00000000e+00  0.00000000e+00]
 [ 0.00000000e+00  0.00000000e+00]
 [ 0.00000000e+00  0.00000000e+00]
 [ 0.00000000e+00  0.00000000e+00]
 [-2.68974158e+00 -1.09492693e+01]
 [ 0.00000000e+00 -1.30523418e+01]
 [ 0.00000000e+00 -1.49288255e+01]
 [ 0.00000000e+00 -1.39458835e+01]
 [ 0.00000000e+00  0.00000000e+00]
 [ 0.00000000e+00  0.00000000e+00]
 [ 0.00000000e+00  0.00000000e+00]
 [ 0.00000000e+00  0.00000000e+00]
 [ 0.00000000e+00  0.00000000e+00]
 [ 0.00000000e+00  0.00000000e+00]
 [ 0.00000000e+00  0.00000000e+00]
 [ 0.00000000e+00  0.00000000e+00]
 [ 9.22316988e-01 -5.92435869e-02]
 [ 0.00000000e+00  0.00000000e+00]
 [ 0.00000000e+00  0.00000000e+00]
 [ 0.00000000e+00  0.00000000e+00]
 [ 0.00000000e+00  0.00000000e+00]
 [ 0.00000000e+00  0.00000000e+00]
 [ 0.00000000e+00  0.00000000e+00]
 [ 0.00000000e+00  0.00000000e+00]
 [ 0.00000000e+00  0.00000000e+00]]